Language model created by QuickLM on Thu Sep 21 13:10:04 EDT 2017
Copyright (c) 1996-2010 Carnegie Mellon University and Alexander I. Rudnicky

The model is in standard ARPA format, designed by Doug Paul while he was at MITRE.

The code that was used to produce this language model is available in Open Source.
Please visit http://www.speech.cs.cmu.edu/tools/ for more information

The (fixed) discount mass is 0.5. The backoffs are computed using the ratio method.
This model based on a corpus of 15 sentences and 17 words

\data\
ngram 1=17
ngram 2=30
ngram 3=15

\1-grams:
-0.7782 </s> -0.3010
-0.7782 <s> -0.2218
-1.9542 ADIOS -0.2218
-1.9542 APAGAR -0.2218
-1.9542 AVANZAR -0.2218
-1.9542 DERECHA -0.2218
-1.9542 DESPEDIRSE -0.2218
-1.9542 DETENERSE -0.2218
-1.9542 ENCENDER -0.2218
-1.9542 HOLA -0.2218
-1.9542 IZQUIERDA -0.2218
-1.9542 LED -0.2218
-1.9542 LEFT -0.2218
-1.9542 LOLA -0.2218
-1.9542 PEDRO -0.2218
-1.9542 RIGHT -0.2218
-1.9542 SALUDAR -0.2218

\2-grams:
-1.4771 <s> ADIOS 0.0000
-1.4771 <s> APAGAR 0.0000
-1.4771 <s> AVANZAR 0.0000
-1.4771 <s> DERECHA 0.0000
-1.4771 <s> DESPEDIRSE 0.0000
-1.4771 <s> DETENERSE 0.0000
-1.4771 <s> ENCENDER 0.0000
-1.4771 <s> HOLA 0.0000
-1.4771 <s> IZQUIERDA 0.0000
-1.4771 <s> LED 0.0000
-1.4771 <s> LEFT 0.0000
-1.4771 <s> LOLA 0.0000
-1.4771 <s> PEDRO 0.0000
-1.4771 <s> RIGHT 0.0000
-1.4771 <s> SALUDAR 0.0000
-0.3010 ADIOS </s> -0.3010
-0.3010 APAGAR </s> -0.3010
-0.3010 AVANZAR </s> -0.3010
-0.3010 DERECHA </s> -0.3010
-0.3010 DESPEDIRSE </s> -0.3010
-0.3010 DETENERSE </s> -0.3010
-0.3010 ENCENDER </s> -0.3010
-0.3010 HOLA </s> -0.3010
-0.3010 IZQUIERDA </s> -0.3010
-0.3010 LED </s> -0.3010
-0.3010 LEFT </s> -0.3010
-0.3010 LOLA </s> -0.3010
-0.3010 PEDRO </s> -0.3010
-0.3010 RIGHT </s> -0.3010
-0.3010 SALUDAR </s> -0.3010

\3-grams:
-0.3010 <s> ADIOS </s>
-0.3010 <s> APAGAR </s>
-0.3010 <s> AVANZAR </s>
-0.3010 <s> DERECHA </s>
-0.3010 <s> DESPEDIRSE </s>
-0.3010 <s> DETENERSE </s>
-0.3010 <s> ENCENDER </s>
-0.3010 <s> HOLA </s>
-0.3010 <s> IZQUIERDA </s>
-0.3010 <s> LED </s>
-0.3010 <s> LEFT </s>
-0.3010 <s> LOLA </s>
-0.3010 <s> PEDRO </s>
-0.3010 <s> RIGHT </s>
-0.3010 <s> SALUDAR </s>

\end\
